digraph Tree {
node [shape=box, style="filled, rounded", color="black", fontname=helvetica] ;
edge [fontname=helvetica] ;
0 [label=<X<SUB>97</SUB> &le; 3.842<br/>gini = 0.37<br/>samples = 8000<br/>value = [6039, 1961]<br/>class = not compsci>, fillcolor="#edaa79"] ;
1 [label=<X<SUB>83</SUB> &le; 1.155<br/>gini = 0.309<br/>samples = 7237<br/>value = [5853, 1384]<br/>class = not compsci>, fillcolor="#eb9f68"] ;
0 -> 1 [labeldistance=2.5, labelangle=45, headlabel="True"] ;
2 [label=<X<SUB>93</SUB> &le; 3.748<br/>gini = 0.081<br/>samples = 3236<br/>value = [3099, 137]<br/>class = not compsci>, fillcolor="#e68742"] ;
1 -> 2 ;
3 [label=<X<SUB>82</SUB> &le; 5.377<br/>gini = 0.07<br/>samples = 3175<br/>value = [3059, 116]<br/>class = not compsci>, fillcolor="#e68641"] ;
2 -> 3 ;
4 [label=<X<SUB>86</SUB> &le; 2.41<br/>gini = 0.064<br/>samples = 3149<br/>value = [3045, 104]<br/>class = not compsci>, fillcolor="#e68540"] ;
3 -> 4 ;
5 [label=<gini = 0.037<br/>samples = 2620<br/>value = [2571, 49]<br/>class = not compsci>, fillcolor="#e5833d"] ;
4 -> 5 ;
6 [label=<gini = 0.186<br/>samples = 529<br/>value = [474, 55]<br/>class = not compsci>, fillcolor="#e89050"] ;
4 -> 6 ;
7 [label=<X<SUB>85</SUB> &le; 0.2<br/>gini = 0.497<br/>samples = 26<br/>value = [14, 12]<br/>class = not compsci>, fillcolor="#fbede3"] ;
3 -> 7 ;
8 [label=<gini = 0.375<br/>samples = 16<br/>value = [4, 12]<br/>class = compsci>, fillcolor="#7bbeee"] ;
7 -> 8 ;
9 [label=<gini = 0.0<br/>samples = 10<br/>value = [10, 0]<br/>class = not compsci>, fillcolor="#e58139"] ;
7 -> 9 ;
10 [label=<X<SUB>40</SUB> &le; 0.08<br/>gini = 0.451<br/>samples = 61<br/>value = [40, 21]<br/>class = not compsci>, fillcolor="#f3c3a1"] ;
2 -> 10 ;
11 [label=<X<SUB>31</SUB> &le; 0.061<br/>gini = 0.219<br/>samples = 8<br/>value = [1, 7]<br/>class = compsci>, fillcolor="#55abe9"] ;
10 -> 11 ;
12 [label=<gini = 0.0<br/>samples = 7<br/>value = [0, 7]<br/>class = compsci>, fillcolor="#399de5"] ;
11 -> 12 ;
13 [label=<gini = 0.0<br/>samples = 1<br/>value = [1, 0]<br/>class = not compsci>, fillcolor="#e58139"] ;
11 -> 13 ;
14 [label=<X<SUB>10</SUB> &le; 0.486<br/>gini = 0.389<br/>samples = 53<br/>value = [39, 14]<br/>class = not compsci>, fillcolor="#eeae80"] ;
10 -> 14 ;
15 [label=<gini = 0.325<br/>samples = 49<br/>value = [39, 10]<br/>class = not compsci>, fillcolor="#eca16c"] ;
14 -> 15 ;
16 [label=<gini = 0.0<br/>samples = 4<br/>value = [0, 4]<br/>class = compsci>, fillcolor="#399de5"] ;
14 -> 16 ;
17 [label=<X<SUB>93</SUB> &le; 2.614<br/>gini = 0.429<br/>samples = 4001<br/>value = [2754, 1247]<br/>class = not compsci>, fillcolor="#f1ba93"] ;
1 -> 17 ;
18 [label=<X<SUB>98</SUB> &le; 1.453<br/>gini = 0.382<br/>samples = 3512<br/>value = [2608, 904]<br/>class = not compsci>, fillcolor="#eead7e"] ;
17 -> 18 ;
19 [label=<X<SUB>99</SUB> &le; 0.029<br/>gini = 0.318<br/>samples = 3026<br/>value = [2426, 600]<br/>class = not compsci>, fillcolor="#eba06a"] ;
18 -> 19 ;
20 [label=<gini = 0.263<br/>samples = 135<br/>value = [21, 114]<br/>class = compsci>, fillcolor="#5dafea"] ;
19 -> 20 ;
21 [label=<gini = 0.28<br/>samples = 2891<br/>value = [2405, 486]<br/>class = not compsci>, fillcolor="#ea9a61"] ;
19 -> 21 ;
22 [label=<X<SUB>91</SUB> &le; 0.239<br/>gini = 0.468<br/>samples = 486<br/>value = [182, 304]<br/>class = compsci>, fillcolor="#b0d8f5"] ;
18 -> 22 ;
23 [label=<gini = 0.385<br/>samples = 404<br/>value = [105, 299]<br/>class = compsci>, fillcolor="#7fbfee"] ;
22 -> 23 ;
24 [label=<gini = 0.115<br/>samples = 82<br/>value = [77, 5]<br/>class = not compsci>, fillcolor="#e78946"] ;
22 -> 24 ;
25 [label=<X<SUB>96</SUB> &le; 0.302<br/>gini = 0.419<br/>samples = 489<br/>value = [146, 343]<br/>class = compsci>, fillcolor="#8dc7f0"] ;
17 -> 25 ;
26 [label=<X<SUB>25</SUB> &le; 1.334<br/>gini = 0.407<br/>samples = 478<br/>value = [136, 342]<br/>class = compsci>, fillcolor="#88c4ef"] ;
25 -> 26 ;
27 [label=<gini = 0.387<br/>samples = 453<br/>value = [119, 334]<br/>class = compsci>, fillcolor="#80c0ee"] ;
26 -> 27 ;
28 [label=<gini = 0.435<br/>samples = 25<br/>value = [17, 8]<br/>class = not compsci>, fillcolor="#f1bc96"] ;
26 -> 28 ;
29 [label=<X<SUB>18</SUB> &le; 0.034<br/>gini = 0.165<br/>samples = 11<br/>value = [10, 1]<br/>class = not compsci>, fillcolor="#e88e4d"] ;
25 -> 29 ;
30 [label=<gini = 0.0<br/>samples = 1<br/>value = [0, 1]<br/>class = compsci>, fillcolor="#399de5"] ;
29 -> 30 ;
31 [label=<gini = 0.0<br/>samples = 10<br/>value = [10, 0]<br/>class = not compsci>, fillcolor="#e58139"] ;
29 -> 31 ;
32 [label=<X<SUB>97</SUB> &le; 4.191<br/>gini = 0.369<br/>samples = 763<br/>value = [186, 577]<br/>class = compsci>, fillcolor="#79bded"] ;
0 -> 32 [labeldistance=2.5, labelangle=-45, headlabel="False"] ;
33 [label=<X<SUB>64</SUB> &le; 1.316<br/>gini = 0.22<br/>samples = 653<br/>value = [82, 571]<br/>class = compsci>, fillcolor="#55abe9"] ;
32 -> 33 ;
34 [label=<X<SUB>46</SUB> &le; 0.034<br/>gini = 0.207<br/>samples = 647<br/>value = [76, 571]<br/>class = compsci>, fillcolor="#53aae8"] ;
33 -> 34 ;
35 [label=<X<SUB>12</SUB> &le; 0.057<br/>gini = 0.375<br/>samples = 8<br/>value = [6, 2]<br/>class = not compsci>, fillcolor="#eeab7b"] ;
34 -> 35 ;
36 [label=<gini = 0.0<br/>samples = 2<br/>value = [0, 2]<br/>class = compsci>, fillcolor="#399de5"] ;
35 -> 36 ;
37 [label=<gini = 0.0<br/>samples = 6<br/>value = [6, 0]<br/>class = not compsci>, fillcolor="#e58139"] ;
35 -> 37 ;
38 [label=<X<SUB>85</SUB> &le; 3.273<br/>gini = 0.195<br/>samples = 639<br/>value = [70, 569]<br/>class = compsci>, fillcolor="#51a9e8"] ;
34 -> 38 ;
39 [label=<gini = 0.165<br/>samples = 596<br/>value = [54, 542]<br/>class = compsci>, fillcolor="#4da7e8"] ;
38 -> 39 ;
40 [label=<gini = 0.467<br/>samples = 43<br/>value = [16, 27]<br/>class = compsci>, fillcolor="#aed7f4"] ;
38 -> 40 ;
41 [label=<gini = 0.0<br/>samples = 6<br/>value = [6, 0]<br/>class = not compsci>, fillcolor="#e58139"] ;
33 -> 41 ;
42 [label=<X<SUB>39</SUB> &le; 1.03<br/>gini = 0.103<br/>samples = 110<br/>value = [104, 6]<br/>class = not compsci>, fillcolor="#e68844"] ;
32 -> 42 ;
43 [label=<X<SUB>13</SUB> &le; 0.044<br/>gini = 0.055<br/>samples = 106<br/>value = [103, 3]<br/>class = not compsci>, fillcolor="#e6853f"] ;
42 -> 43 ;
44 [label=<gini = 0.0<br/>samples = 1<br/>value = [0, 1]<br/>class = compsci>, fillcolor="#399de5"] ;
43 -> 44 ;
45 [label=<X<SUB>12</SUB> &le; 1.572<br/>gini = 0.037<br/>samples = 105<br/>value = [103, 2]<br/>class = not compsci>, fillcolor="#e6833d"] ;
43 -> 45 ;
46 [label=<gini = 0.019<br/>samples = 104<br/>value = [103, 1]<br/>class = not compsci>, fillcolor="#e5823b"] ;
45 -> 46 ;
47 [label=<gini = 0.0<br/>samples = 1<br/>value = [0, 1]<br/>class = compsci>, fillcolor="#399de5"] ;
45 -> 47 ;
48 [label=<X<SUB>84</SUB> &le; 0.169<br/>gini = 0.375<br/>samples = 4<br/>value = [1, 3]<br/>class = compsci>, fillcolor="#7bbeee"] ;
42 -> 48 ;
49 [label=<gini = 0.0<br/>samples = 1<br/>value = [1, 0]<br/>class = not compsci>, fillcolor="#e58139"] ;
48 -> 49 ;
50 [label=<gini = 0.0<br/>samples = 3<br/>value = [0, 3]<br/>class = compsci>, fillcolor="#399de5"] ;
48 -> 50 ;
}