digraph Tree {
node [shape=box, style="filled, rounded", color="black", fontname=helvetica] ;
edge [fontname=helvetica] ;
0 [label=<X<SUB>97</SUB> &le; 3.842<br/>gini = 0.37<br/>samples = 8000<br/>value = [6039, 1961]<br/>class = not compsci>, fillcolor="#edaa79"] ;
1 [label=<X<SUB>83</SUB> &le; 1.155<br/>gini = 0.309<br/>samples = 7237<br/>value = [5853, 1384]<br/>class = not compsci>, fillcolor="#eb9f68"] ;
0 -> 1 [labeldistance=2.5, labelangle=45, headlabel="True"] ;
2 [label=<X<SUB>93</SUB> &le; 3.748<br/>gini = 0.081<br/>samples = 3236<br/>value = [3099, 137]<br/>class = not compsci>, fillcolor="#e68742"] ;
1 -> 2 ;
3 [label=<X<SUB>82</SUB> &le; 5.377<br/>gini = 0.07<br/>samples = 3175<br/>value = [3059, 116]<br/>class = not compsci>, fillcolor="#e68641"] ;
2 -> 3 ;
4 [label=<X<SUB>86</SUB> &le; 2.41<br/>gini = 0.064<br/>samples = 3149<br/>value = [3045, 104]<br/>class = not compsci>, fillcolor="#e68540"] ;
3 -> 4 ;
5 [label=<X<SUB>22</SUB> &le; 3.161<br/>gini = 0.037<br/>samples = 2620<br/>value = [2571, 49]<br/>class = not compsci>, fillcolor="#e5833d"] ;
4 -> 5 ;
6 [label=<X<SUB>19</SUB> &le; 1.464<br/>gini = 0.035<br/>samples = 2618<br/>value = [2571, 47]<br/>class = not compsci>, fillcolor="#e5833d"] ;
5 -> 6 ;
7 [label=<X<SUB>13</SUB> &le; 3.259<br/>gini = 0.03<br/>samples = 2584<br/>value = [2545, 39]<br/>class = not compsci>, fillcolor="#e5833c"] ;
6 -> 7 ;
8 [label=<X<SUB>67</SUB> &le; 1.227<br/>gini = 0.028<br/>samples = 2578<br/>value = [2542, 36]<br/>class = not compsci>, fillcolor="#e5833c"] ;
7 -> 8 ;
9 [label=<X<SUB>96</SUB> &le; 1.57<br/>gini = 0.025<br/>samples = 2555<br/>value = [2523, 32]<br/>class = not compsci>, fillcolor="#e5833c"] ;
8 -> 9 ;
10 [label=<gini = 0.017<br/>samples = 2295<br/>value = [2275, 20]<br/>class = not compsci>, fillcolor="#e5823b"] ;
9 -> 10 ;
11 [label=<gini = 0.088<br/>samples = 260<br/>value = [248, 12]<br/>class = not compsci>, fillcolor="#e68743"] ;
9 -> 11 ;
12 [label=<X<SUB>48</SUB> &le; 0.059<br/>gini = 0.287<br/>samples = 23<br/>value = [19, 4]<br/>class = not compsci>, fillcolor="#ea9c63"] ;
8 -> 12 ;
13 [label=<gini = 0.32<br/>samples = 5<br/>value = [1, 4]<br/>class = compsci>, fillcolor="#6ab6ec"] ;
12 -> 13 ;
14 [label=<gini = 0.0<br/>samples = 18<br/>value = [18, 0]<br/>class = not compsci>, fillcolor="#e58139"] ;
12 -> 14 ;
15 [label=<X<SUB>55</SUB> &le; 0.1<br/>gini = 0.5<br/>samples = 6<br/>value = [3, 3]<br/>class = not compsci>, fillcolor="#ffffff"] ;
7 -> 15 ;
16 [label=<gini = 0.0<br/>samples = 3<br/>value = [3, 0]<br/>class = not compsci>, fillcolor="#e58139"] ;
15 -> 16 ;
17 [label=<gini = 0.0<br/>samples = 3<br/>value = [0, 3]<br/>class = compsci>, fillcolor="#399de5"] ;
15 -> 17 ;
18 [label=<X<SUB>10</SUB> &le; 0.065<br/>gini = 0.36<br/>samples = 34<br/>value = [26, 8]<br/>class = not compsci>, fillcolor="#eda876"] ;
6 -> 18 ;
19 [label=<X<SUB>100</SUB> &le; 0.536<br/>gini = 0.444<br/>samples = 9<br/>value = [3, 6]<br/>class = compsci>, fillcolor="#9ccef2"] ;
18 -> 19 ;
20 [label=<gini = 0.0<br/>samples = 5<br/>value = [0, 5]<br/>class = compsci>, fillcolor="#399de5"] ;
19 -> 20 ;
21 [label=<X<SUB>1</SUB> &le; 0.097<br/>gini = 0.375<br/>samples = 4<br/>value = [3, 1]<br/>class = not compsci>, fillcolor="#eeab7b"] ;
19 -> 21 ;
22 [label=<gini = 0.0<br/>samples = 3<br/>value = [3, 0]<br/>class = not compsci>, fillcolor="#e58139"] ;
21 -> 22 ;
23 [label=<gini = 0.0<br/>samples = 1<br/>value = [0, 1]<br/>class = compsci>, fillcolor="#399de5"] ;
21 -> 23 ;
24 [label=<X<SUB>72</SUB> &le; 1.64<br/>gini = 0.147<br/>samples = 25<br/>value = [23, 2]<br/>class = not compsci>, fillcolor="#e78c4a"] ;
18 -> 24 ;
25 [label=<gini = 0.0<br/>samples = 22<br/>value = [22, 0]<br/>class = not compsci>, fillcolor="#e58139"] ;
24 -> 25 ;
26 [label=<X<SUB>3</SUB> &le; 0.186<br/>gini = 0.444<br/>samples = 3<br/>value = [1, 2]<br/>class = compsci>, fillcolor="#9ccef2"] ;
24 -> 26 ;
27 [label=<gini = 0.0<br/>samples = 2<br/>value = [0, 2]<br/>class = compsci>, fillcolor="#399de5"] ;
26 -> 27 ;
28 [label=<gini = 0.0<br/>samples = 1<br/>value = [1, 0]<br/>class = not compsci>, fillcolor="#e58139"] ;
26 -> 28 ;
29 [label=<gini = 0.0<br/>samples = 2<br/>value = [0, 2]<br/>class = compsci>, fillcolor="#399de5"] ;
5 -> 29 ;
30 [label=<X<SUB>85</SUB> &le; 0.076<br/>gini = 0.186<br/>samples = 529<br/>value = [474, 55]<br/>class = not compsci>, fillcolor="#e89050"] ;
4 -> 30 ;
31 [label=<X<SUB>27</SUB> &le; 0.101<br/>gini = 0.346<br/>samples = 9<br/>value = [2, 7]<br/>class = compsci>, fillcolor="#72b9ec"] ;
30 -> 31 ;
32 [label=<gini = 0.0<br/>samples = 7<br/>value = [0, 7]<br/>class = compsci>, fillcolor="#399de5"] ;
31 -> 32 ;
33 [label=<gini = 0.0<br/>samples = 2<br/>value = [2, 0]<br/>class = not compsci>, fillcolor="#e58139"] ;
31 -> 33 ;
34 [label=<X<SUB>38</SUB> &le; 0.042<br/>gini = 0.168<br/>samples = 520<br/>value = [472, 48]<br/>class = not compsci>, fillcolor="#e88e4d"] ;
30 -> 34 ;
35 [label=<X<SUB>20</SUB> &le; 0.063<br/>gini = 0.419<br/>samples = 57<br/>value = [40, 17]<br/>class = not compsci>, fillcolor="#f0b78d"] ;
34 -> 35 ;
36 [label=<X<SUB>29</SUB> &le; 0.076<br/>gini = 0.172<br/>samples = 42<br/>value = [38, 4]<br/>class = not compsci>, fillcolor="#e88e4e"] ;
35 -> 36 ;
37 [label=<gini = 0.0<br/>samples = 36<br/>value = [36, 0]<br/>class = not compsci>, fillcolor="#e58139"] ;
36 -> 37 ;
38 [label=<X<SUB>89</SUB> &le; 0.624<br/>gini = 0.444<br/>samples = 6<br/>value = [2, 4]<br/>class = compsci>, fillcolor="#9ccef2"] ;
36 -> 38 ;
39 [label=<gini = 0.0<br/>samples = 2<br/>value = [2, 0]<br/>class = not compsci>, fillcolor="#e58139"] ;
38 -> 39 ;
40 [label=<gini = 0.0<br/>samples = 4<br/>value = [0, 4]<br/>class = compsci>, fillcolor="#399de5"] ;
38 -> 40 ;
41 [label=<X<SUB>83</SUB> &le; 0.172<br/>gini = 0.231<br/>samples = 15<br/>value = [2, 13]<br/>class = compsci>, fillcolor="#57ace9"] ;
35 -> 41 ;
42 [label=<gini = 0.0<br/>samples = 2<br/>value = [2, 0]<br/>class = not compsci>, fillcolor="#e58139"] ;
41 -> 42 ;
43 [label=<gini = 0.0<br/>samples = 13<br/>value = [0, 13]<br/>class = compsci>, fillcolor="#399de5"] ;
41 -> 43 ;
44 [label=<X<SUB>15</SUB> &le; 0.5<br/>gini = 0.125<br/>samples = 463<br/>value = [432, 31]<br/>class = not compsci>, fillcolor="#e78a47"] ;
34 -> 44 ;
45 [label=<X<SUB>29</SUB> &le; 0.901<br/>gini = 0.118<br/>samples = 461<br/>value = [432, 29]<br/>class = not compsci>, fillcolor="#e78946"] ;
44 -> 45 ;
46 [label=<X<SUB>86</SUB> &le; 2.419<br/>gini = 0.108<br/>samples = 455<br/>value = [429, 26]<br/>class = not compsci>, fillcolor="#e78945"] ;
45 -> 46 ;
47 [label=<gini = 0.444<br/>samples = 3<br/>value = [1, 2]<br/>class = compsci>, fillcolor="#9ccef2"] ;
46 -> 47 ;
48 [label=<gini = 0.101<br/>samples = 452<br/>value = [428, 24]<br/>class = not compsci>, fillcolor="#e68844"] ;
46 -> 48 ;
49 [label=<X<SUB>2</SUB> &le; 0.11<br/>gini = 0.5<br/>samples = 6<br/>value = [3, 3]<br/>class = not compsci>, fillcolor="#ffffff"] ;
45 -> 49 ;
50 [label=<gini = 0.0<br/>samples = 3<br/>value = [3, 0]<br/>class = not compsci>, fillcolor="#e58139"] ;
49 -> 50 ;
51 [label=<gini = 0.0<br/>samples = 3<br/>value = [0, 3]<br/>class = compsci>, fillcolor="#399de5"] ;
49 -> 51 ;
52 [label=<gini = 0.0<br/>samples = 2<br/>value = [0, 2]<br/>class = compsci>, fillcolor="#399de5"] ;
44 -> 52 ;
53 [label=<X<SUB>85</SUB> &le; 0.2<br/>gini = 0.497<br/>samples = 26<br/>value = [14, 12]<br/>class = not compsci>, fillcolor="#fbede3"] ;
3 -> 53 ;
54 [label=<X<SUB>71</SUB> &le; 1.188<br/>gini = 0.375<br/>samples = 16<br/>value = [4, 12]<br/>class = compsci>, fillcolor="#7bbeee"] ;
53 -> 54 ;
55 [label=<X<SUB>28</SUB> &le; 0.133<br/>gini = 0.142<br/>samples = 13<br/>value = [1, 12]<br/>class = compsci>, fillcolor="#49a5e7"] ;
54 -> 55 ;
56 [label=<gini = 0.0<br/>samples = 12<br/>value = [0, 12]<br/>class = compsci>, fillcolor="#399de5"] ;
55 -> 56 ;
57 [label=<gini = 0.0<br/>samples = 1<br/>value = [1, 0]<br/>class = not compsci>, fillcolor="#e58139"] ;
55 -> 57 ;
58 [label=<gini = 0.0<br/>samples = 3<br/>value = [3, 0]<br/>class = not compsci>, fillcolor="#e58139"] ;
54 -> 58 ;
59 [label=<gini = 0.0<br/>samples = 10<br/>value = [10, 0]<br/>class = not compsci>, fillcolor="#e58139"] ;
53 -> 59 ;
60 [label=<X<SUB>40</SUB> &le; 0.08<br/>gini = 0.451<br/>samples = 61<br/>value = [40, 21]<br/>class = not compsci>, fillcolor="#f3c3a1"] ;
2 -> 60 ;
61 [label=<X<SUB>17</SUB> &le; 0.513<br/>gini = 0.219<br/>samples = 8<br/>value = [1, 7]<br/>class = compsci>, fillcolor="#55abe9"] ;
60 -> 61 ;
62 [label=<gini = 0.0<br/>samples = 7<br/>value = [0, 7]<br/>class = compsci>, fillcolor="#399de5"] ;
61 -> 62 ;
63 [label=<gini = 0.0<br/>samples = 1<br/>value = [1, 0]<br/>class = not compsci>, fillcolor="#e58139"] ;
61 -> 63 ;
64 [label=<X<SUB>10</SUB> &le; 0.486<br/>gini = 0.389<br/>samples = 53<br/>value = [39, 14]<br/>class = not compsci>, fillcolor="#eeae80"] ;
60 -> 64 ;
65 [label=<X<SUB>48</SUB> &le; 0.775<br/>gini = 0.325<br/>samples = 49<br/>value = [39, 10]<br/>class = not compsci>, fillcolor="#eca16c"] ;
64 -> 65 ;
66 [label=<X<SUB>89</SUB> &le; 3.336<br/>gini = 0.258<br/>samples = 46<br/>value = [39, 7]<br/>class = not compsci>, fillcolor="#ea985d"] ;
65 -> 66 ;
67 [label=<X<SUB>89</SUB> &le; 0.107<br/>gini = 0.172<br/>samples = 42<br/>value = [38, 4]<br/>class = not compsci>, fillcolor="#e88e4e"] ;
66 -> 67 ;
68 [label=<X<SUB>24</SUB> &le; 0.077<br/>gini = 0.444<br/>samples = 3<br/>value = [1, 2]<br/>class = compsci>, fillcolor="#9ccef2"] ;
67 -> 68 ;
69 [label=<gini = 0.0<br/>samples = 1<br/>value = [1, 0]<br/>class = not compsci>, fillcolor="#e58139"] ;
68 -> 69 ;
70 [label=<gini = 0.0<br/>samples = 2<br/>value = [0, 2]<br/>class = compsci>, fillcolor="#399de5"] ;
68 -> 70 ;
71 [label=<X<SUB>23</SUB> &le; 0.398<br/>gini = 0.097<br/>samples = 39<br/>value = [37, 2]<br/>class = not compsci>, fillcolor="#e68844"] ;
67 -> 71 ;
72 [label=<X<SUB>79</SUB> &le; 2.653<br/>gini = 0.051<br/>samples = 38<br/>value = [37, 1]<br/>class = not compsci>, fillcolor="#e6843e"] ;
71 -> 72 ;
73 [label=<gini = 0.0<br/>samples = 37<br/>value = [37, 0]<br/>class = not compsci>, fillcolor="#e58139"] ;
72 -> 73 ;
74 [label=<gini = 0.0<br/>samples = 1<br/>value = [0, 1]<br/>class = compsci>, fillcolor="#399de5"] ;
72 -> 74 ;
75 [label=<gini = 0.0<br/>samples = 1<br/>value = [0, 1]<br/>class = compsci>, fillcolor="#399de5"] ;
71 -> 75 ;
76 [label=<X<SUB>28</SUB> &le; 0.188<br/>gini = 0.375<br/>samples = 4<br/>value = [1, 3]<br/>class = compsci>, fillcolor="#7bbeee"] ;
66 -> 76 ;
77 [label=<gini = 0.0<br/>samples = 3<br/>value = [0, 3]<br/>class = compsci>, fillcolor="#399de5"] ;
76 -> 77 ;
78 [label=<gini = 0.0<br/>samples = 1<br/>value = [1, 0]<br/>class = not compsci>, fillcolor="#e58139"] ;
76 -> 78 ;
79 [label=<gini = 0.0<br/>samples = 3<br/>value = [0, 3]<br/>class = compsci>, fillcolor="#399de5"] ;
65 -> 79 ;
80 [label=<gini = 0.0<br/>samples = 4<br/>value = [0, 4]<br/>class = compsci>, fillcolor="#399de5"] ;
64 -> 80 ;
81 [label=<X<SUB>93</SUB> &le; 2.614<br/>gini = 0.429<br/>samples = 4001<br/>value = [2754, 1247]<br/>class = not compsci>, fillcolor="#f1ba93"] ;
1 -> 81 ;
82 [label=<X<SUB>98</SUB> &le; 1.453<br/>gini = 0.382<br/>samples = 3512<br/>value = [2608, 904]<br/>class = not compsci>, fillcolor="#eead7e"] ;
81 -> 82 ;
83 [label=<X<SUB>99</SUB> &le; 0.029<br/>gini = 0.318<br/>samples = 3026<br/>value = [2426, 600]<br/>class = not compsci>, fillcolor="#eba06a"] ;
82 -> 83 ;
84 [label=<X<SUB>34</SUB> &le; 0.037<br/>gini = 0.263<br/>samples = 135<br/>value = [21, 114]<br/>class = compsci>, fillcolor="#5dafea"] ;
83 -> 84 ;
85 [label=<X<SUB>84</SUB> &le; 0.34<br/>gini = 0.42<br/>samples = 10<br/>value = [7, 3]<br/>class = not compsci>, fillcolor="#f0b78e"] ;
84 -> 85 ;
86 [label=<gini = 0.0<br/>samples = 3<br/>value = [0, 3]<br/>class = compsci>, fillcolor="#399de5"] ;
85 -> 86 ;
87 [label=<gini = 0.0<br/>samples = 7<br/>value = [7, 0]<br/>class = not compsci>, fillcolor="#e58139"] ;
85 -> 87 ;
88 [label=<X<SUB>53</SUB> &le; 0.031<br/>gini = 0.199<br/>samples = 125<br/>value = [14, 111]<br/>class = compsci>, fillcolor="#52a9e8"] ;
84 -> 88 ;
89 [label=<gini = 0.0<br/>samples = 3<br/>value = [3, 0]<br/>class = not compsci>, fillcolor="#e58139"] ;
88 -> 89 ;
90 [label=<X<SUB>87</SUB> &le; 3.542<br/>gini = 0.164<br/>samples = 122<br/>value = [11, 111]<br/>class = compsci>, fillcolor="#4da7e8"] ;
88 -> 90 ;
91 [label=<X<SUB>59</SUB> &le; 0.168<br/>gini = 0.139<br/>samples = 120<br/>value = [9, 111]<br/>class = compsci>, fillcolor="#49a5e7"] ;
90 -> 91 ;
92 [label=<X<SUB>80</SUB> &le; 6.757<br/>gini = 0.112<br/>samples = 117<br/>value = [7, 110]<br/>class = compsci>, fillcolor="#46a3e7"] ;
91 -> 92 ;
93 [label=<gini = 0.098<br/>samples = 116<br/>value = [6, 110]<br/>class = compsci>, fillcolor="#44a2e6"] ;
92 -> 93 ;
94 [label=<gini = 0.0<br/>samples = 1<br/>value = [1, 0]<br/>class = not compsci>, fillcolor="#e58139"] ;
92 -> 94 ;
95 [label=<X<SUB>34</SUB> &le; 0.153<br/>gini = 0.444<br/>samples = 3<br/>value = [2, 1]<br/>class = not compsci>, fillcolor="#f2c09c"] ;
91 -> 95 ;
96 [label=<gini = 0.0<br/>samples = 2<br/>value = [2, 0]<br/>class = not compsci>, fillcolor="#e58139"] ;
95 -> 96 ;
97 [label=<gini = 0.0<br/>samples = 1<br/>value = [0, 1]<br/>class = compsci>, fillcolor="#399de5"] ;
95 -> 97 ;
98 [label=<gini = 0.0<br/>samples = 2<br/>value = [2, 0]<br/>class = not compsci>, fillcolor="#e58139"] ;
90 -> 98 ;
99 [label=<X<SUB>82</SUB> &le; 0.181<br/>gini = 0.28<br/>samples = 2891<br/>value = [2405, 486]<br/>class = not compsci>, fillcolor="#ea9a61"] ;
83 -> 99 ;
100 [label=<X<SUB>92</SUB> &le; 0.708<br/>gini = 0.497<br/>samples = 169<br/>value = [78, 91]<br/>class = compsci>, fillcolor="#e3f1fb"] ;
99 -> 100 ;
101 [label=<X<SUB>90</SUB> &le; 0.077<br/>gini = 0.491<br/>samples = 132<br/>value = [75, 57]<br/>class = not compsci>, fillcolor="#f9e1cf"] ;
100 -> 101 ;
102 [label=<X<SUB>39</SUB> &le; 0.076<br/>gini = 0.418<br/>samples = 37<br/>value = [11, 26]<br/>class = compsci>, fillcolor="#8dc6f0"] ;
101 -> 102 ;
103 [label=<X<SUB>34</SUB> &le; 0.049<br/>gini = 0.459<br/>samples = 14<br/>value = [9, 5]<br/>class = not compsci>, fillcolor="#f3c7a7"] ;
102 -> 103 ;
104 [label=<gini = 0.0<br/>samples = 5<br/>value = [0, 5]<br/>class = compsci>, fillcolor="#399de5"] ;
103 -> 104 ;
105 [label=<gini = 0.0<br/>samples = 9<br/>value = [9, 0]<br/>class = not compsci>, fillcolor="#e58139"] ;
103 -> 105 ;
106 [label=<X<SUB>28</SUB> &le; 0.236<br/>gini = 0.159<br/>samples = 23<br/>value = [2, 21]<br/>class = compsci>, fillcolor="#4ca6e7"] ;
102 -> 106 ;
107 [label=<gini = 0.0<br/>samples = 21<br/>value = [0, 21]<br/>class = compsci>, fillcolor="#399de5"] ;
106 -> 107 ;
108 [label=<gini = 0.0<br/>samples = 2<br/>value = [2, 0]<br/>class = not compsci>, fillcolor="#e58139"] ;
106 -> 108 ;
109 [label=<X<SUB>89</SUB> &le; 0.096<br/>gini = 0.44<br/>samples = 95<br/>value = [64, 31]<br/>class = not compsci>, fillcolor="#f2be99"] ;
101 -> 109 ;
110 [label=<X<SUB>94</SUB> &le; 0.301<br/>gini = 0.461<br/>samples = 25<br/>value = [9, 16]<br/>class = compsci>, fillcolor="#a8d4f4"] ;
109 -> 110 ;
111 [label=<gini = 0.397<br/>samples = 11<br/>value = [8, 3]<br/>class = not compsci>, fillcolor="#efb083"] ;
110 -> 111 ;
112 [label=<gini = 0.133<br/>samples = 14<br/>value = [1, 13]<br/>class = compsci>, fillcolor="#48a5e7"] ;
110 -> 112 ;
113 [label=<X<SUB>38</SUB> &le; 0.458<br/>gini = 0.337<br/>samples = 70<br/>value = [55, 15]<br/>class = not compsci>, fillcolor="#eca36f"] ;
109 -> 113 ;
114 [label=<gini = 0.267<br/>samples = 63<br/>value = [53, 10]<br/>class = not compsci>, fillcolor="#ea995e"] ;
113 -> 114 ;
115 [label=<gini = 0.408<br/>samples = 7<br/>value = [2, 5]<br/>class = compsci>, fillcolor="#88c4ef"] ;
113 -> 115 ;
116 [label=<X<SUB>91</SUB> &le; 1.161<br/>gini = 0.149<br/>samples = 37<br/>value = [3, 34]<br/>class = compsci>, fillcolor="#4aa6e7"] ;
100 -> 116 ;
117 [label=<X<SUB>37</SUB> &le; 0.745<br/>gini = 0.056<br/>samples = 35<br/>value = [1, 34]<br/>class = compsci>, fillcolor="#3fa0e6"] ;
116 -> 117 ;
118 [label=<gini = 0.0<br/>samples = 34<br/>value = [0, 34]<br/>class = compsci>, fillcolor="#399de5"] ;
117 -> 118 ;
119 [label=<gini = 0.0<br/>samples = 1<br/>value = [1, 0]<br/>class = not compsci>, fillcolor="#e58139"] ;
117 -> 119 ;
120 [label=<gini = 0.0<br/>samples = 2<br/>value = [2, 0]<br/>class = not compsci>, fillcolor="#e58139"] ;
116 -> 120 ;
121 [label=<X<SUB>20</SUB> &le; 2.448<br/>gini = 0.248<br/>samples = 2722<br/>value = [2327, 395]<br/>class = not compsci>, fillcolor="#e9965b"] ;
99 -> 121 ;
122 [label=<X<SUB>19</SUB> &le; 1.514<br/>gini = 0.24<br/>samples = 2697<br/>value = [2320, 377]<br/>class = not compsci>, fillcolor="#e99559"] ;
121 -> 122 ;
123 [label=<X<SUB>25</SUB> &le; 1.183<br/>gini = 0.229<br/>samples = 2618<br/>value = [2273, 345]<br/>class = not compsci>, fillcolor="#e99457"] ;
122 -> 123 ;
124 [label=<X<SUB>96</SUB> &le; 0.049<br/>gini = 0.212<br/>samples = 2470<br/>value = [2172, 298]<br/>class = not compsci>, fillcolor="#e99254"] ;
123 -> 124 ;
125 [label=<gini = 0.071<br/>samples = 464<br/>value = [447, 17]<br/>class = not compsci>, fillcolor="#e68641"] ;
124 -> 125 ;
126 [label=<gini = 0.241<br/>samples = 2006<br/>value = [1725, 281]<br/>class = not compsci>, fillcolor="#e99659"] ;
124 -> 126 ;
127 [label=<X<SUB>13</SUB> &le; 0.118<br/>gini = 0.433<br/>samples = 148<br/>value = [101, 47]<br/>class = not compsci>, fillcolor="#f1bc95"] ;
123 -> 127 ;
128 [label=<gini = 0.403<br/>samples = 136<br/>value = [98, 38]<br/>class = not compsci>, fillcolor="#efb286"] ;
127 -> 128 ;
129 [label=<gini = 0.375<br/>samples = 12<br/>value = [3, 9]<br/>class = compsci>, fillcolor="#7bbeee"] ;
127 -> 129 ;
130 [label=<X<SUB>87</SUB> &le; 0.938<br/>gini = 0.482<br/>samples = 79<br/>value = [47, 32]<br/>class = not compsci>, fillcolor="#f7d7c0"] ;
122 -> 130 ;
131 [label=<X<SUB>5</SUB> &le; 0.096<br/>gini = 0.49<br/>samples = 49<br/>value = [21, 28]<br/>class = compsci>, fillcolor="#cee6f8"] ;
130 -> 131 ;
132 [label=<gini = 0.366<br/>samples = 29<br/>value = [7, 22]<br/>class = compsci>, fillcolor="#78bced"] ;
131 -> 132 ;
133 [label=<gini = 0.42<br/>samples = 20<br/>value = [14, 6]<br/>class = not compsci>, fillcolor="#f0b78e"] ;
131 -> 133 ;
134 [label=<X<SUB>2</SUB> &le; 0.074<br/>gini = 0.231<br/>samples = 30<br/>value = [26, 4]<br/>class = not compsci>, fillcolor="#e99457"] ;
130 -> 134 ;
135 [label=<gini = 0.375<br/>samples = 4<br/>value = [1, 3]<br/>class = compsci>, fillcolor="#7bbeee"] ;
134 -> 135 ;
136 [label=<gini = 0.074<br/>samples = 26<br/>value = [25, 1]<br/>class = not compsci>, fillcolor="#e68641"] ;
134 -> 136 ;
137 [label=<X<SUB>54</SUB> &le; 0.239<br/>gini = 0.403<br/>samples = 25<br/>value = [7, 18]<br/>class = compsci>, fillcolor="#86c3ef"] ;
121 -> 137 ;
138 [label=<X<SUB>12</SUB> &le; 0.75<br/>gini = 0.245<br/>samples = 21<br/>value = [3, 18]<br/>class = compsci>, fillcolor="#5aade9"] ;
137 -> 138 ;
139 [label=<X<SUB>35</SUB> &le; 0.075<br/>gini = 0.1<br/>samples = 19<br/>value = [1, 18]<br/>class = compsci>, fillcolor="#44a2e6"] ;
138 -> 139 ;
140 [label=<gini = 0.0<br/>samples = 1<br/>value = [1, 0]<br/>class = not compsci>, fillcolor="#e58139"] ;
139 -> 140 ;
141 [label=<gini = 0.0<br/>samples = 18<br/>value = [0, 18]<br/>class = compsci>, fillcolor="#399de5"] ;
139 -> 141 ;
142 [label=<gini = 0.0<br/>samples = 2<br/>value = [2, 0]<br/>class = not compsci>, fillcolor="#e58139"] ;
138 -> 142 ;
143 [label=<gini = 0.0<br/>samples = 4<br/>value = [4, 0]<br/>class = not compsci>, fillcolor="#e58139"] ;
137 -> 143 ;
144 [label=<X<SUB>91</SUB> &le; 0.239<br/>gini = 0.468<br/>samples = 486<br/>value = [182, 304]<br/>class = compsci>, fillcolor="#b0d8f5"] ;
82 -> 144 ;
145 [label=<X<SUB>95</SUB> &le; 1.758<br/>gini = 0.385<br/>samples = 404<br/>value = [105, 299]<br/>class = compsci>, fillcolor="#7fbfee"] ;
144 -> 145 ;
146 [label=<X<SUB>32</SUB> &le; 0.082<br/>gini = 0.369<br/>samples = 394<br/>value = [96, 298]<br/>class = compsci>, fillcolor="#79bded"] ;
145 -> 146 ;
147 [label=<X<SUB>18</SUB> &le; 0.04<br/>gini = 0.456<br/>samples = 171<br/>value = [60, 111]<br/>class = compsci>, fillcolor="#a4d2f3"] ;
146 -> 147 ;
148 [label=<X<SUB>55</SUB> &le; 0.115<br/>gini = 0.245<br/>samples = 42<br/>value = [6, 36]<br/>class = compsci>, fillcolor="#5aade9"] ;
147 -> 148 ;
149 [label=<X<SUB>81</SUB> &le; 4.534<br/>gini = 0.111<br/>samples = 34<br/>value = [2, 32]<br/>class = compsci>, fillcolor="#45a3e7"] ;
148 -> 149 ;
150 [label=<gini = 0.0<br/>samples = 31<br/>value = [0, 31]<br/>class = compsci>, fillcolor="#399de5"] ;
149 -> 150 ;
151 [label=<gini = 0.444<br/>samples = 3<br/>value = [2, 1]<br/>class = not compsci>, fillcolor="#f2c09c"] ;
149 -> 151 ;
152 [label=<X<SUB>59</SUB> &le; 0.095<br/>gini = 0.5<br/>samples = 8<br/>value = [4, 4]<br/>class = not compsci>, fillcolor="#ffffff"] ;
148 -> 152 ;
153 [label=<gini = 0.0<br/>samples = 4<br/>value = [4, 0]<br/>class = not compsci>, fillcolor="#e58139"] ;
152 -> 153 ;
154 [label=<gini = 0.0<br/>samples = 4<br/>value = [0, 4]<br/>class = compsci>, fillcolor="#399de5"] ;
152 -> 154 ;
155 [label=<X<SUB>17</SUB> &le; 0.073<br/>gini = 0.487<br/>samples = 129<br/>value = [54, 75]<br/>class = compsci>, fillcolor="#c8e4f8"] ;
147 -> 155 ;
156 [label=<X<SUB>80</SUB> &le; 4.331<br/>gini = 0.489<br/>samples = 61<br/>value = [35, 26]<br/>class = not compsci>, fillcolor="#f8dfcc"] ;
155 -> 156 ;
157 [label=<gini = 0.449<br/>samples = 50<br/>value = [33, 17]<br/>class = not compsci>, fillcolor="#f2c29f"] ;
156 -> 157 ;
158 [label=<gini = 0.298<br/>samples = 11<br/>value = [2, 9]<br/>class = compsci>, fillcolor="#65b3eb"] ;
156 -> 158 ;
159 [label=<X<SUB>12</SUB> &le; 0.295<br/>gini = 0.403<br/>samples = 68<br/>value = [19, 49]<br/>class = compsci>, fillcolor="#86c3ef"] ;
155 -> 159 ;
160 [label=<gini = 0.245<br/>samples = 49<br/>value = [7, 42]<br/>class = compsci>, fillcolor="#5aade9"] ;
159 -> 160 ;
161 [label=<gini = 0.465<br/>samples = 19<br/>value = [12, 7]<br/>class = not compsci>, fillcolor="#f4caac"] ;
159 -> 161 ;
162 [label=<X<SUB>12</SUB> &le; 1.197<br/>gini = 0.271<br/>samples = 223<br/>value = [36, 187]<br/>class = compsci>, fillcolor="#5fb0ea"] ;
146 -> 162 ;
163 [label=<X<SUB>67</SUB> &le; 0.757<br/>gini = 0.246<br/>samples = 216<br/>value = [31, 185]<br/>class = compsci>, fillcolor="#5aade9"] ;
162 -> 163 ;
164 [label=<X<SUB>55</SUB> &le; 0.042<br/>gini = 0.223<br/>samples = 211<br/>value = [27, 184]<br/>class = compsci>, fillcolor="#56abe9"] ;
163 -> 164 ;
165 [label=<gini = 0.498<br/>samples = 15<br/>value = [7, 8]<br/>class = compsci>, fillcolor="#e6f3fc"] ;
164 -> 165 ;
166 [label=<gini = 0.183<br/>samples = 196<br/>value = [20, 176]<br/>class = compsci>, fillcolor="#50a8e8"] ;
164 -> 166 ;
167 [label=<X<SUB>34</SUB> &le; 0.142<br/>gini = 0.32<br/>samples = 5<br/>value = [4, 1]<br/>class = not compsci>, fillcolor="#eca06a"] ;
163 -> 167 ;
168 [label=<gini = 0.0<br/>samples = 1<br/>value = [0, 1]<br/>class = compsci>, fillcolor="#399de5"] ;
167 -> 168 ;
169 [label=<gini = 0.0<br/>samples = 4<br/>value = [4, 0]<br/>class = not compsci>, fillcolor="#e58139"] ;
167 -> 169 ;
170 [label=<X<SUB>24</SUB> &le; 0.134<br/>gini = 0.408<br/>samples = 7<br/>value = [5, 2]<br/>class = not compsci>, fillcolor="#efb388"] ;
162 -> 170 ;
171 [label=<gini = 0.0<br/>samples = 5<br/>value = [5, 0]<br/>class = not compsci>, fillcolor="#e58139"] ;
170 -> 171 ;
172 [label=<gini = 0.0<br/>samples = 2<br/>value = [0, 2]<br/>class = compsci>, fillcolor="#399de5"] ;
170 -> 172 ;
173 [label=<X<SUB>58</SUB> &le; 0.656<br/>gini = 0.18<br/>samples = 10<br/>value = [9, 1]<br/>class = not compsci>, fillcolor="#e88f4f"] ;
145 -> 173 ;
174 [label=<gini = 0.0<br/>samples = 9<br/>value = [9, 0]<br/>class = not compsci>, fillcolor="#e58139"] ;
173 -> 174 ;
175 [label=<gini = 0.0<br/>samples = 1<br/>value = [0, 1]<br/>class = compsci>, fillcolor="#399de5"] ;
173 -> 175 ;
176 [label=<X<SUB>19</SUB> &le; 0.049<br/>gini = 0.115<br/>samples = 82<br/>value = [77, 5]<br/>class = not compsci>, fillcolor="#e78946"] ;
144 -> 176 ;
177 [label=<X<SUB>61</SUB> &le; 0.075<br/>gini = 0.49<br/>samples = 7<br/>value = [4, 3]<br/>class = not compsci>, fillcolor="#f8e0ce"] ;
176 -> 177 ;
178 [label=<gini = 0.0<br/>samples = 4<br/>value = [4, 0]<br/>class = not compsci>, fillcolor="#e58139"] ;
177 -> 178 ;
179 [label=<gini = 0.0<br/>samples = 3<br/>value = [0, 3]<br/>class = compsci>, fillcolor="#399de5"] ;
177 -> 179 ;
180 [label=<X<SUB>52</SUB> &le; 0.878<br/>gini = 0.052<br/>samples = 75<br/>value = [73, 2]<br/>class = not compsci>, fillcolor="#e6843e"] ;
176 -> 180 ;
181 [label=<X<SUB>83</SUB> &le; 4.169<br/>gini = 0.027<br/>samples = 74<br/>value = [73, 1]<br/>class = not compsci>, fillcolor="#e5833c"] ;
180 -> 181 ;
182 [label=<gini = 0.0<br/>samples = 73<br/>value = [73, 0]<br/>class = not compsci>, fillcolor="#e58139"] ;
181 -> 182 ;
183 [label=<gini = 0.0<br/>samples = 1<br/>value = [0, 1]<br/>class = compsci>, fillcolor="#399de5"] ;
181 -> 183 ;
184 [label=<gini = 0.0<br/>samples = 1<br/>value = [0, 1]<br/>class = compsci>, fillcolor="#399de5"] ;
180 -> 184 ;
185 [label=<X<SUB>96</SUB> &le; 0.302<br/>gini = 0.419<br/>samples = 489<br/>value = [146, 343]<br/>class = compsci>, fillcolor="#8dc7f0"] ;
81 -> 185 ;
186 [label=<X<SUB>25</SUB> &le; 1.334<br/>gini = 0.407<br/>samples = 478<br/>value = [136, 342]<br/>class = compsci>, fillcolor="#88c4ef"] ;
185 -> 186 ;
187 [label=<X<SUB>68</SUB> &le; 0.049<br/>gini = 0.387<br/>samples = 453<br/>value = [119, 334]<br/>class = compsci>, fillcolor="#80c0ee"] ;
186 -> 187 ;
188 [label=<X<SUB>41</SUB> &le; 0.794<br/>gini = 0.322<br/>samples = 302<br/>value = [61, 241]<br/>class = compsci>, fillcolor="#6bb6ec"] ;
187 -> 188 ;
189 [label=<X<SUB>81</SUB> &le; 0.509<br/>gini = 0.313<br/>samples = 299<br/>value = [58, 241]<br/>class = compsci>, fillcolor="#69b5eb"] ;
188 -> 189 ;
190 [label=<X<SUB>83</SUB> &le; 3.619<br/>gini = 0.257<br/>samples = 224<br/>value = [34, 190]<br/>class = compsci>, fillcolor="#5cafea"] ;
189 -> 190 ;
191 [label=<X<SUB>37</SUB> &le; 0.03<br/>gini = 0.225<br/>samples = 209<br/>value = [27, 182]<br/>class = compsci>, fillcolor="#56ace9"] ;
190 -> 191 ;
192 [label=<gini = 0.0<br/>samples = 2<br/>value = [2, 0]<br/>class = not compsci>, fillcolor="#e58139"] ;
191 -> 192 ;
193 [label=<gini = 0.212<br/>samples = 207<br/>value = [25, 182]<br/>class = compsci>, fillcolor="#54aae9"] ;
191 -> 193 ;
194 [label=<X<SUB>17</SUB> &le; 0.082<br/>gini = 0.498<br/>samples = 15<br/>value = [7, 8]<br/>class = compsci>, fillcolor="#e6f3fc"] ;
190 -> 194 ;
195 [label=<gini = 0.375<br/>samples = 8<br/>value = [6, 2]<br/>class = not compsci>, fillcolor="#eeab7b"] ;
194 -> 195 ;
196 [label=<gini = 0.245<br/>samples = 7<br/>value = [1, 6]<br/>class = compsci>, fillcolor="#5aade9"] ;
194 -> 196 ;
197 [label=<X<SUB>33</SUB> &le; 0.652<br/>gini = 0.435<br/>samples = 75<br/>value = [24, 51]<br/>class = compsci>, fillcolor="#96cbf1"] ;
189 -> 197 ;
198 [label=<X<SUB>48</SUB> &le; 0.035<br/>gini = 0.375<br/>samples = 68<br/>value = [17, 51]<br/>class = compsci>, fillcolor="#7bbeee"] ;
197 -> 198 ;
199 [label=<gini = 0.482<br/>samples = 37<br/>value = [15, 22]<br/>class = compsci>, fillcolor="#c0e0f7"] ;
198 -> 199 ;
200 [label=<gini = 0.121<br/>samples = 31<br/>value = [2, 29]<br/>class = compsci>, fillcolor="#47a4e7"] ;
198 -> 200 ;
201 [label=<gini = 0.0<br/>samples = 7<br/>value = [7, 0]<br/>class = not compsci>, fillcolor="#e58139"] ;
197 -> 201 ;
202 [label=<gini = 0.0<br/>samples = 3<br/>value = [3, 0]<br/>class = not compsci>, fillcolor="#e58139"] ;
188 -> 202 ;
203 [label=<X<SUB>13</SUB> &le; 0.057<br/>gini = 0.473<br/>samples = 151<br/>value = [58, 93]<br/>class = compsci>, fillcolor="#b4daf5"] ;
187 -> 203 ;
204 [label=<X<SUB>45</SUB> &le; 0.074<br/>gini = 0.308<br/>samples = 21<br/>value = [17, 4]<br/>class = not compsci>, fillcolor="#eb9f68"] ;
203 -> 204 ;
205 [label=<X<SUB>36</SUB> &le; 0.035<br/>gini = 0.111<br/>samples = 17<br/>value = [16, 1]<br/>class = not compsci>, fillcolor="#e78945"] ;
204 -> 205 ;
206 [label=<gini = 0.0<br/>samples = 1<br/>value = [0, 1]<br/>class = compsci>, fillcolor="#399de5"] ;
205 -> 206 ;
207 [label=<gini = 0.0<br/>samples = 16<br/>value = [16, 0]<br/>class = not compsci>, fillcolor="#e58139"] ;
205 -> 207 ;
208 [label=<X<SUB>21</SUB> &le; 0.135<br/>gini = 0.375<br/>samples = 4<br/>value = [1, 3]<br/>class = compsci>, fillcolor="#7bbeee"] ;
204 -> 208 ;
209 [label=<gini = 0.0<br/>samples = 1<br/>value = [1, 0]<br/>class = not compsci>, fillcolor="#e58139"] ;
208 -> 209 ;
210 [label=<gini = 0.0<br/>samples = 3<br/>value = [0, 3]<br/>class = compsci>, fillcolor="#399de5"] ;
208 -> 210 ;
211 [label=<X<SUB>9</SUB> &le; 0.04<br/>gini = 0.432<br/>samples = 130<br/>value = [41, 89]<br/>class = compsci>, fillcolor="#94caf1"] ;
203 -> 211 ;
212 [label=<gini = 0.0<br/>samples = 5<br/>value = [5, 0]<br/>class = not compsci>, fillcolor="#e58139"] ;
211 -> 212 ;
213 [label=<X<SUB>43</SUB> &le; 0.07<br/>gini = 0.41<br/>samples = 125<br/>value = [36, 89]<br/>class = compsci>, fillcolor="#89c5f0"] ;
211 -> 213 ;
214 [label=<X<SUB>43</SUB> &le; 0.054<br/>gini = 0.485<br/>samples = 58<br/>value = [24, 34]<br/>class = compsci>, fillcolor="#c5e2f7"] ;
213 -> 214 ;
215 [label=<gini = 0.284<br/>samples = 35<br/>value = [6, 29]<br/>class = compsci>, fillcolor="#62b1ea"] ;
214 -> 215 ;
216 [label=<gini = 0.34<br/>samples = 23<br/>value = [18, 5]<br/>class = not compsci>, fillcolor="#eca470"] ;
214 -> 216 ;
217 [label=<X<SUB>13</SUB> &le; 0.072<br/>gini = 0.294<br/>samples = 67<br/>value = [12, 55]<br/>class = compsci>, fillcolor="#64b2eb"] ;
213 -> 217 ;
218 [label=<gini = 0.495<br/>samples = 20<br/>value = [9, 11]<br/>class = compsci>, fillcolor="#dbedfa"] ;
217 -> 218 ;
219 [label=<gini = 0.12<br/>samples = 47<br/>value = [3, 44]<br/>class = compsci>, fillcolor="#46a4e7"] ;
217 -> 219 ;
220 [label=<X<SUB>48</SUB> &le; 0.049<br/>gini = 0.435<br/>samples = 25<br/>value = [17, 8]<br/>class = not compsci>, fillcolor="#f1bc96"] ;
186 -> 220 ;
221 [label=<X<SUB>20</SUB> &le; 0.145<br/>gini = 0.473<br/>samples = 13<br/>value = [5, 8]<br/>class = compsci>, fillcolor="#b5daf5"] ;
220 -> 221 ;
222 [label=<X<SUB>68</SUB> &le; 0.104<br/>gini = 0.278<br/>samples = 6<br/>value = [5, 1]<br/>class = not compsci>, fillcolor="#ea9a61"] ;
221 -> 222 ;
223 [label=<gini = 0.0<br/>samples = 5<br/>value = [5, 0]<br/>class = not compsci>, fillcolor="#e58139"] ;
222 -> 223 ;
224 [label=<gini = 0.0<br/>samples = 1<br/>value = [0, 1]<br/>class = compsci>, fillcolor="#399de5"] ;
222 -> 224 ;
225 [label=<gini = 0.0<br/>samples = 7<br/>value = [0, 7]<br/>class = compsci>, fillcolor="#399de5"] ;
221 -> 225 ;
226 [label=<gini = 0.0<br/>samples = 12<br/>value = [12, 0]<br/>class = not compsci>, fillcolor="#e58139"] ;
220 -> 226 ;
227 [label=<X<SUB>28</SUB> &le; 0.056<br/>gini = 0.165<br/>samples = 11<br/>value = [10, 1]<br/>class = not compsci>, fillcolor="#e88e4d"] ;
185 -> 227 ;
228 [label=<gini = 0.0<br/>samples = 1<br/>value = [0, 1]<br/>class = compsci>, fillcolor="#399de5"] ;
227 -> 228 ;
229 [label=<gini = 0.0<br/>samples = 10<br/>value = [10, 0]<br/>class = not compsci>, fillcolor="#e58139"] ;
227 -> 229 ;
230 [label=<X<SUB>90</SUB> &le; 0.493<br/>gini = 0.369<br/>samples = 763<br/>value = [186, 577]<br/>class = compsci>, fillcolor="#79bded"] ;
0 -> 230 [labeldistance=2.5, labelangle=-45, headlabel="False"] ;
231 [label=<X<SUB>64</SUB> &le; 1.316<br/>gini = 0.22<br/>samples = 653<br/>value = [82, 571]<br/>class = compsci>, fillcolor="#55abe9"] ;
230 -> 231 ;
232 [label=<X<SUB>46</SUB> &le; 0.034<br/>gini = 0.207<br/>samples = 647<br/>value = [76, 571]<br/>class = compsci>, fillcolor="#53aae8"] ;
231 -> 232 ;
233 [label=<X<SUB>12</SUB> &le; 0.057<br/>gini = 0.375<br/>samples = 8<br/>value = [6, 2]<br/>class = not compsci>, fillcolor="#eeab7b"] ;
232 -> 233 ;
234 [label=<gini = 0.0<br/>samples = 2<br/>value = [0, 2]<br/>class = compsci>, fillcolor="#399de5"] ;
233 -> 234 ;
235 [label=<gini = 0.0<br/>samples = 6<br/>value = [6, 0]<br/>class = not compsci>, fillcolor="#e58139"] ;
233 -> 235 ;
236 [label=<X<SUB>85</SUB> &le; 3.273<br/>gini = 0.195<br/>samples = 639<br/>value = [70, 569]<br/>class = compsci>, fillcolor="#51a9e8"] ;
232 -> 236 ;
237 [label=<X<SUB>81</SUB> &le; 1.328<br/>gini = 0.165<br/>samples = 596<br/>value = [54, 542]<br/>class = compsci>, fillcolor="#4da7e8"] ;
236 -> 237 ;
238 [label=<X<SUB>35</SUB> &le; 0.958<br/>gini = 0.14<br/>samples = 555<br/>value = [42, 513]<br/>class = compsci>, fillcolor="#49a5e7"] ;
237 -> 238 ;
239 [label=<X<SUB>36</SUB> &le; 1.487<br/>gini = 0.115<br/>samples = 522<br/>value = [32, 490]<br/>class = compsci>, fillcolor="#46a3e7"] ;
238 -> 239 ;
240 [label=<X<SUB>80</SUB> &le; 3.801<br/>gini = 0.109<br/>samples = 520<br/>value = [30, 490]<br/>class = compsci>, fillcolor="#45a3e7"] ;
239 -> 240 ;
241 [label=<X<SUB>6</SUB> &le; 1.803<br/>gini = 0.089<br/>samples = 495<br/>value = [23, 472]<br/>class = compsci>, fillcolor="#43a2e6"] ;
240 -> 241 ;
242 [label=<gini = 0.076<br/>samples = 480<br/>value = [19, 461]<br/>class = compsci>, fillcolor="#41a1e6"] ;
241 -> 242 ;
243 [label=<gini = 0.391<br/>samples = 15<br/>value = [4, 11]<br/>class = compsci>, fillcolor="#81c1ee"] ;
241 -> 243 ;
244 [label=<X<SUB>8</SUB> &le; 0.107<br/>gini = 0.403<br/>samples = 25<br/>value = [7, 18]<br/>class = compsci>, fillcolor="#86c3ef"] ;
240 -> 244 ;
245 [label=<gini = 0.0<br/>samples = 16<br/>value = [0, 16]<br/>class = compsci>, fillcolor="#399de5"] ;
244 -> 245 ;
246 [label=<gini = 0.346<br/>samples = 9<br/>value = [7, 2]<br/>class = not compsci>, fillcolor="#eca572"] ;
244 -> 246 ;
247 [label=<gini = 0.0<br/>samples = 2<br/>value = [2, 0]<br/>class = not compsci>, fillcolor="#e58139"] ;
239 -> 247 ;
248 [label=<X<SUB>18</SUB> &le; 0.508<br/>gini = 0.422<br/>samples = 33<br/>value = [10, 23]<br/>class = compsci>, fillcolor="#8fc8f0"] ;
238 -> 248 ;
249 [label=<X<SUB>28</SUB> &le; 0.101<br/>gini = 0.302<br/>samples = 27<br/>value = [5, 22]<br/>class = compsci>, fillcolor="#66b3eb"] ;
248 -> 249 ;
250 [label=<X<SUB>83</SUB> &le; 1.884<br/>gini = 0.375<br/>samples = 4<br/>value = [3, 1]<br/>class = not compsci>, fillcolor="#eeab7b"] ;
249 -> 250 ;
251 [label=<gini = 0.0<br/>samples = 1<br/>value = [0, 1]<br/>class = compsci>, fillcolor="#399de5"] ;
250 -> 251 ;
252 [label=<gini = 0.0<br/>samples = 3<br/>value = [3, 0]<br/>class = not compsci>, fillcolor="#e58139"] ;
250 -> 252 ;
253 [label=<X<SUB>28</SUB> &le; 0.278<br/>gini = 0.159<br/>samples = 23<br/>value = [2, 21]<br/>class = compsci>, fillcolor="#4ca6e7"] ;
249 -> 253 ;
254 [label=<gini = 0.0<br/>samples = 20<br/>value = [0, 20]<br/>class = compsci>, fillcolor="#399de5"] ;
253 -> 254 ;
255 [label=<gini = 0.444<br/>samples = 3<br/>value = [2, 1]<br/>class = not compsci>, fillcolor="#f2c09c"] ;
253 -> 255 ;
256 [label=<X<SUB>72</SUB> &le; 0.048<br/>gini = 0.278<br/>samples = 6<br/>value = [5, 1]<br/>class = not compsci>, fillcolor="#ea9a61"] ;
248 -> 256 ;
257 [label=<gini = 0.0<br/>samples = 1<br/>value = [0, 1]<br/>class = compsci>, fillcolor="#399de5"] ;
256 -> 257 ;
258 [label=<gini = 0.0<br/>samples = 5<br/>value = [5, 0]<br/>class = not compsci>, fillcolor="#e58139"] ;
256 -> 258 ;
259 [label=<X<SUB>63</SUB> &le; 0.352<br/>gini = 0.414<br/>samples = 41<br/>value = [12, 29]<br/>class = compsci>, fillcolor="#8bc6f0"] ;
237 -> 259 ;
260 [label=<X<SUB>85</SUB> &le; 0.141<br/>gini = 0.339<br/>samples = 37<br/>value = [8, 29]<br/>class = compsci>, fillcolor="#70b8ec"] ;
259 -> 260 ;
261 [label=<X<SUB>22</SUB> &le; 0.234<br/>gini = 0.32<br/>samples = 5<br/>value = [4, 1]<br/>class = not compsci>, fillcolor="#eca06a"] ;
260 -> 261 ;
262 [label=<gini = 0.0<br/>samples = 4<br/>value = [4, 0]<br/>class = not compsci>, fillcolor="#e58139"] ;
261 -> 262 ;
263 [label=<gini = 0.0<br/>samples = 1<br/>value = [0, 1]<br/>class = compsci>, fillcolor="#399de5"] ;
261 -> 263 ;
264 [label=<X<SUB>19</SUB> &le; 0.143<br/>gini = 0.219<br/>samples = 32<br/>value = [4, 28]<br/>class = compsci>, fillcolor="#55abe9"] ;
260 -> 264 ;
265 [label=<gini = 0.0<br/>samples = 25<br/>value = [0, 25]<br/>class = compsci>, fillcolor="#399de5"] ;
264 -> 265 ;
266 [label=<X<SUB>11</SUB> &le; 0.054<br/>gini = 0.49<br/>samples = 7<br/>value = [4, 3]<br/>class = not compsci>, fillcolor="#f8e0ce"] ;
264 -> 266 ;
267 [label=<gini = 0.0<br/>samples = 3<br/>value = [0, 3]<br/>class = compsci>, fillcolor="#399de5"] ;
266 -> 267 ;
268 [label=<gini = 0.0<br/>samples = 4<br/>value = [4, 0]<br/>class = not compsci>, fillcolor="#e58139"] ;
266 -> 268 ;
269 [label=<gini = 0.0<br/>samples = 4<br/>value = [4, 0]<br/>class = not compsci>, fillcolor="#e58139"] ;
259 -> 269 ;
270 [label=<X<SUB>71</SUB> &le; 0.077<br/>gini = 0.467<br/>samples = 43<br/>value = [16, 27]<br/>class = compsci>, fillcolor="#aed7f4"] ;
236 -> 270 ;
271 [label=<X<SUB>65</SUB> &le; 0.387<br/>gini = 0.312<br/>samples = 31<br/>value = [6, 25]<br/>class = compsci>, fillcolor="#69b5eb"] ;
270 -> 271 ;
272 [label=<X<SUB>6</SUB> &le; 2.603<br/>gini = 0.198<br/>samples = 27<br/>value = [3, 24]<br/>class = compsci>, fillcolor="#52a9e8"] ;
271 -> 272 ;
273 [label=<X<SUB>84</SUB> &le; 0.299<br/>gini = 0.077<br/>samples = 25<br/>value = [1, 24]<br/>class = compsci>, fillcolor="#41a1e6"] ;
272 -> 273 ;
274 [label=<gini = 0.0<br/>samples = 1<br/>value = [1, 0]<br/>class = not compsci>, fillcolor="#e58139"] ;
273 -> 274 ;
275 [label=<gini = 0.0<br/>samples = 24<br/>value = [0, 24]<br/>class = compsci>, fillcolor="#399de5"] ;
273 -> 275 ;
276 [label=<gini = 0.0<br/>samples = 2<br/>value = [2, 0]<br/>class = not compsci>, fillcolor="#e58139"] ;
272 -> 276 ;
277 [label=<X<SUB>14</SUB> &le; 0.143<br/>gini = 0.375<br/>samples = 4<br/>value = [3, 1]<br/>class = not compsci>, fillcolor="#eeab7b"] ;
271 -> 277 ;
278 [label=<gini = 0.0<br/>samples = 3<br/>value = [3, 0]<br/>class = not compsci>, fillcolor="#e58139"] ;
277 -> 278 ;
279 [label=<gini = 0.0<br/>samples = 1<br/>value = [0, 1]<br/>class = compsci>, fillcolor="#399de5"] ;
277 -> 279 ;
280 [label=<X<SUB>10</SUB> &le; 0.071<br/>gini = 0.278<br/>samples = 12<br/>value = [10, 2]<br/>class = not compsci>, fillcolor="#ea9a61"] ;
270 -> 280 ;
281 [label=<gini = 0.0<br/>samples = 2<br/>value = [0, 2]<br/>class = compsci>, fillcolor="#399de5"] ;
280 -> 281 ;
282 [label=<gini = 0.0<br/>samples = 10<br/>value = [10, 0]<br/>class = not compsci>, fillcolor="#e58139"] ;
280 -> 282 ;
283 [label=<gini = 0.0<br/>samples = 6<br/>value = [6, 0]<br/>class = not compsci>, fillcolor="#e58139"] ;
231 -> 283 ;
284 [label=<X<SUB>39</SUB> &le; 1.03<br/>gini = 0.103<br/>samples = 110<br/>value = [104, 6]<br/>class = not compsci>, fillcolor="#e68844"] ;
230 -> 284 ;
285 [label=<X<SUB>13</SUB> &le; 0.044<br/>gini = 0.055<br/>samples = 106<br/>value = [103, 3]<br/>class = not compsci>, fillcolor="#e6853f"] ;
284 -> 285 ;
286 [label=<gini = 0.0<br/>samples = 1<br/>value = [0, 1]<br/>class = compsci>, fillcolor="#399de5"] ;
285 -> 286 ;
287 [label=<X<SUB>23</SUB> &le; 0.457<br/>gini = 0.037<br/>samples = 105<br/>value = [103, 2]<br/>class = not compsci>, fillcolor="#e6833d"] ;
285 -> 287 ;
288 [label=<X<SUB>12</SUB> &le; 1.572<br/>gini = 0.019<br/>samples = 104<br/>value = [103, 1]<br/>class = not compsci>, fillcolor="#e5823b"] ;
287 -> 288 ;
289 [label=<gini = 0.0<br/>samples = 103<br/>value = [103, 0]<br/>class = not compsci>, fillcolor="#e58139"] ;
288 -> 289 ;
290 [label=<gini = 0.0<br/>samples = 1<br/>value = [0, 1]<br/>class = compsci>, fillcolor="#399de5"] ;
288 -> 290 ;
291 [label=<gini = 0.0<br/>samples = 1<br/>value = [0, 1]<br/>class = compsci>, fillcolor="#399de5"] ;
287 -> 291 ;
292 [label=<X<SUB>62</SUB> &le; 0.414<br/>gini = 0.375<br/>samples = 4<br/>value = [1, 3]<br/>class = compsci>, fillcolor="#7bbeee"] ;
284 -> 292 ;
293 [label=<gini = 0.0<br/>samples = 3<br/>value = [0, 3]<br/>class = compsci>, fillcolor="#399de5"] ;
292 -> 293 ;
294 [label=<gini = 0.0<br/>samples = 1<br/>value = [1, 0]<br/>class = not compsci>, fillcolor="#e58139"] ;
292 -> 294 ;
}